    // 4 lanes
    // rayCount = 7;
    // #rayLengthMultiplier = 3;
    // #raySpread = Math.PI / 4;

const goodFourLaneBrain = '{"brain":{"levels":[{"inputs":[0.29948764790453175,0,0.3807225910286124,0.37032612917509267,0,0.25404851518415084,0.2588384216814055],"outputs":[0,0,0,0,0],"biases":[-0.46230684284652956,-0.48412810187144373,-0.6842211877240576,0,-0.6497535677971701],"weights":[[-0.6699173381285564,-0.6824605777419733,-0.08013236080093702,-0.5390081467045562,-0.4478986877008795],[-0.5173082948954437,-0.180582366976,-0.12428965202767686,-0.4919684478760992,-0.5232748618502063],[-0.625007389749417,-0.5228016787710096,-0.5478575182229061,-0.4479337575027723,-0.30125621142252956],[-0.7597190226723807,-0.22974332452258714,-0.6319407434502065,-0.6358718981285563,-0.6351060881289329],[-0.2655332932954438,-0.3021510112286139,-0.25204939592448,-0.5940359864950672,-0.2547116329229637],[-0.693905713823063,-0.45963297655026397,-0.5521888433506406,-0.6868770357694932,-0.497609571228614],[-0.6318063479723232,-0.7489434496065067,-0.48090034446970775,-0.24036192537599999,-0.20184973489544372]]},{"inputs":[0,0,0,0,0],"outputs":[1,1,1,1],"biases":[-0.7884879028697077,-0.5751279809963231,-0.47364072122442247,-0.5228172041515775],"weights":[[0,-0.7107164416,-0.36808239432448,-0.21847143060282992],[-0.15920433023034988,-0.7287169638226865,-0.5627337112469062,-0.27476095754658714],[-0.257286920800937,-0.7853450383456501,-0.3009211545773136,-0.4282796981497936],[-0.6194537513229638,-0.4898471891579691,-0.7960053122991205,-0.46957484542268646],[-0.22941646894848,-0.4936636581064492,-0.69560116407552,-0.43731214670455626]]}]},"distance":3000}';